akatsi_1.jpg 80 1 -442.43314 654.81226 1027.8767 -1294.3964 1673.0594 29.271372 537.67712 -193.89517 23.296921 -300.5484 540.59814 -418.93069 140.00616 209.08142 21.377863 -457.20956 -28.17486 229.06784 -498.40283 -256.28598 363.06912 -165.30379 509.65363 -390.71558 586.19592 -627.88531 206.88766 23.307383 335.01276 -635.4032 309.871 -213.38637 117.15045 -317.41312 315.67719 19.554564 -131.33803 -98.012657 5.3805118 134.70419 97.90239 -71.036247 76.917747 -85.534103 52.580566 -159.21924 -18.598339 92.339211 -30.408033 -9.872654 -50.290062 -43.032879 51.62183 -41.040401 12.436092 -9.1556845 -11.571119 12.200035 -3.8539944 -36.303036 -27.419994 -1.7169353 5.9734879 -1.3920025 3.9345593 -8.9887981 9.8555536 11.985766 12.38278 24.318281 3.5750453 6.6305666 -16.596634 19.177494 -75.044319 4.2852874 15.470539 -29.748838 33.182987 -128.20459 
akatsi_2.jpg 80 1 -183.10246 588.66382 1381.1812 -468.94495 1859.8457 -530.8399 489.80524 94.542732 567.22034 -45.293648 626.30176 -382.59369 295.6091 359.84103 54.456306 -326.11288 -404.39807 200.09903 -551.9455 82.465569 137.2085 16.747587 27.908487 63.242416 -96.528099 -9.3473988 47.129539 -16.890186 65.084824 -45.497532 14.748413 -43.596851 120.90449 6.2467823 -68.106499 21.210938 41.291748 91.880348 -144.79109 -75.010941 168.02477 162.43561 -114.97524 378.78363 15.506549 435.056 -356.25845 22.597765 19.825533 37.517307 -153.47144 27.082342 165.22122 203.04225 -208.34534 62.890514 62.300549 -29.187439 12.643535 -50.956551 -30.401199 7.2673512 20.304924 1.6912897 10.063762 -5.1015272 -53.504154 -3.0105159 -18.194664 20.297316 -2.1074252 4.3728905 -16.608259 15.713444 -75.240585 5.3294983 15.307202 -29.572634 33.219372 -49.119736 
akatsi_3.jpg 80 1 -196.67711 550.30121 1294.3419 -646.14508 1968.7947 -439.44229 533.56348 21.617695 603.55951 -39.17181 628.55298 -419.72281 284.72873 317.55414 115.18014 -370.01257 -365.08002 207.92407 -455.86243 168.22729 2.2266288 16.913458 -198.91475 51.506733 -118.56598 38.200554 -22.938107 -27.271032 -127.35001 184.34985 23.29351 16.268478 22.551466 104.4769 -104.94683 35.728767 134.95808 13.167537 5.1184936 23.633841 49.250008 6.3976388 -71.440048 19.485138 50.104294 35.127048 -108.63129 153.75253 106.63169 94.654114 2.1460426 -16.323475 36.62159 -382.65039 332.20676 -163.53101 -151.14659 -41.195381 17.771032 -10.57702 -68.714172 12.407532 36.172104 28.42194 19.180407 -6.8217072 -73.293251 10.717848 -5.872685 20.565058 -11.502217 -1.5384905 -13.565353 17.249506 -73.66983 3.0164413 15.876122 -29.745552 33.14875 -17.094564 
akatsi_4.jpg 80 1 -111.18101 576.53015 1265.3029 -636.93591 2106.9875 -475.42413 617.89172 14.529145 496.12997 -54.020073 488.66684 -440.52097 179.00844 262.43631 26.689167 -456.09399 -445.32315 304.3342 -539.48602 251.00978 -29.182842 -32.928867 -343.56808 81.570427 51.128983 119.19632 -28.345415 15.942702 -110.41775 247.65553 25.161707 83.592384 -19.304094 32.18718 -109.10583 49.758942 66.976578 -73.155823 67.434845 66.134804 -203.35168 -21.04977 151.73198 -221.56798 -17.373566 -403.03793 137.05475 131.32478 -62.544827 -135.98375 -57.576759 -25.611261 -171.62344 176.6786 -175.83124 105.189 14.521157 98.551384 -26.998857 -37.068176 -29.517355 23.187775 15.933476 23.143442 30.125557 7.8393798 -118.74985 6.4055448 -28.643675 18.769201 -15.980328 -4.7632585 -21.430004 13.038644 -74.09037 4.3793879 15.309413 -29.612101 33.151352 -50.515629 
akatsi_5.jpg 80 1 -145.6338 554.07782 1317.9281 -674.73853 2061.8958 -508.80362 621.61578 34.333256 635.18951 -39.545757 586.04462 -451.31512 287.59021 298.48676 68.899719 -373.18314 -406.45593 226.35997 -501.28748 209.88783 28.680788 -8.7438068 -237.43613 96.02578 -27.245762 45.057259 0.33673316 -18.94397 -77.604034 143.41258 33.920723 29.981142 16.19014 47.394325 -110.7343 31.654058 81.634926 33.258263 -32.069553 4.1923051 -51.557854 19.892593 18.719078 -8.3268509 0.47274855 -46.167339 -46.255127 123.18559 25.918602 -25.238249 -42.567818 -31.438536 -54.355072 20.038519 3.989388 23.901379 8.7120533 40.510868 -36.049393 -16.900768 13.352839 -46.315899 -52.442326 -38.931702 -70.663712 17.038164 268.35223 32.561989 87.39122 8.2281713 13.437706 17.96912 -11.265134 13.663446 -74.70031 4.7034068 15.025557 -29.791527 33.220955 -240.7838 
asamma_1.jpg 80 1 194.6416 150.86823 187.6142 175.82726 115.85088 632.13403 440.91537 -45.214016 -759.5451 217.53311 588.32574 -220.72656 890.29895 909.49878 -68.806915 -488.15454 -268.68002 352.53424 -570.59961 38.574139 78.902115 27.246729 -93.804848 -53.683067 3.4242666 -11.859329 38.102798 -22.162697 -48.229847 25.180357 -22.93726 82.388062 -29.300331 39.750175 -29.02067 11.791676 98.575874 -29.506805 21.460159 -25.768137 -57.885216 50.75547 -5.0722108 28.346546 64.794037 -99.905182 17.622303 96.221581 43.918808 -97.210289 -64.567802 -73.235504 376.40991 -163.42015 -126.7893 41.96339 -39.027248 246.10443 -84.788445 -63.463837 -0.93985844 -5.785254 -4.2721243 32.965729 -45.168968 -77.925095 16.202579 112.90486 -63.364937 3.6110597 17.535326 72.572205 -5.1513853 13.157461 -74.235298 3.2997761 15.66002 -28.718531 33.183559 18.913918 
asamma_2.jpg 80 1 172.25793 130.69049 142.46733 135.58557 97.116211 667.13831 453.26163 -134.9655 -752.59509 147.5401 576.85406 -150.26814 932.81799 907.44055 -95.753128 -455.46442 -265.58328 295.13391 -575.81219 16.342772 33.703575 59.461529 44.927143 -92.264709 24.909561 -54.963528 53.553314 -10.570872 52.805546 -41.111725 35.039925 -4.8143983 4.8772793 -21.474054 -74.821556 30.745358 37.765003 -26.487917 -27.629375 47.931622 32.017212 -11.401179 -13.070341 10.393358 -3.9232302 96.120674 -75.236404 81.170929 7.2804046 44.237808 -41.936501 47.982964 -262.69125 101.51494 44.610405 46.984531 -86.332726 38.077339 258.60599 236.24203 -70.167046 56.223015 -18.626663 13.317751 -0.36108115 -56.466141 34.623009 67.607765 -51.273689 16.502554 8.0537415 4.402246 -17.391024 18.29085 -74.061256 3.423079 14.856335 -29.326984 33.215374 -32.348606 
asamma_3.jpg 80 1 192.57393 147.83839 121.28822 187.14249 87.386467 652.5293 414.66327 -108.4919 -742.79889 156.93515 554.90869 -184.24095 906.47186 922.2995 -125.9852 -467.73532 -257.26938 320.09799 -562.29956 26.852591 10.930024 36.014496 -51.101807 -67.412079 12.600573 -68.947937 72.143288 -12.993343 27.223547 17.535124 30.475466 19.376198 -22.892546 -14.421762 -70.458359 50.916283 63.660793 -69.692825 42.206234 42.855694 10.942751 21.585896 18.793236 9.6646194 3.3947954 -21.896685 -81.273499 107.96495 -2.4684818 49.894623 -71.525322 -10.93951 -90.965477 50.039188 41.481953 -5.8145576 15.195785 -86.116806 -50.859764 -79.49559 -35.932121 -10.670033 14.252212 -21.464481 17.999796 91.317558 -41.434628 -84.180565 126.57243 4.4862866 -6.9785547 169.14502 8.5729589 18.135998 -78.165604 2.0975866 16.380671 -29.414915 33.100277 62.710953 
asamma_4.jpg 80 1 191.59946 146.19978 159.0882 168.32025 92.07003 644.90088 474.6655 -77.023018 -769.40094 214.32672 596.5705 -183.32922 917.36584 949.40759 -96.826736 -512.69183 -261.1716 346.92627 -590.44629 36.618279 49.798325 33.046871 -31.446943 -68.137878 33.368343 -41.080803 44.419621 -7.5760622 -12.999264 14.298506 10.557323 29.664377 -2.8375065 6.7705431 -45.741714 26.354715 70.872559 -31.875244 21.996708 27.262611 -11.316761 34.721741 0.45450425 45.247585 33.966148 -41.555496 -36.490685 107.54538 18.841198 -28.235235 -71.585762 -59.829323 155.20312 -60.626129 -56.094746 43.4212 -38.293449 135.27374 -33.197094 20.942711 -71.64904 -23.193705 24.346069 -14.779644 56.958691 109.39613 21.52128 -109.13586 90.422379 33.192234 -33.097805 -148.71375 -33.536366 13.485518 -73.826492 6.4577851 15.359781 -30.765556 33.16502 52.719921 
asamma_5.jpg 80 1 256.36948 236.92952 106.70718 219.41278 166.05122 738.0116 329.76514 -109.73534 -719.4375 123.48964 592.43634 -198.20032 822.39044 877.26782 -98.018867 -501.48486 -341.76648 361.2326 -626.367 1.5436132 18.513893 50.170094 -92.760536 -99.835869 -16.067698 -88.668831 94.405464 -16.225578 27.190746 -4.9377356 13.865637 24.998728 -35.401794 -10.40545 -75.298683 79.48333 65.055504 -111.76024 5.2641683 32.716385 -5.054143 42.961143 19.459972 -8.1497812 -7.0582981 -46.533745 -105.38098 49.140263 3.8628602 77.010162 -56.60247 4.5314937 -163.64081 78.320274 75.927856 -64.439842 60.623314 -241.10515 -136.24173 -272.4476 32.583778 -22.188316 2.2232642 7.8380127 -47.37286 -67.980316 20.923483 78.478416 -52.128117 23.390486 5.3239846 -75.529854 -28.698164 16.113195 -71.795998 6.1725063 14.593266 -30.183292 33.223743 130.48843 
astefa_1.jpg 80 1 538.71338 444.30753 1349.7672 113.45807 1602.601 1153.426 -926.10223 -15.403161 -951.46429 -149.80539 592.44733 115.25565 -325.34467 429.16605 37.642467 -288.8902 -345.33109 223.22597 -344.21902 -37.902874 150.30455 68.514984 59.894165 43.484585 28.092855 -2.6305275 -3.1266797 -50.271175 10.638144 2.114212 -17.680056 51.617645 9.8645258 49.45612 -61.699825 17.984875 46.939693 17.335396 -36.779018 -21.039915 -8.5437756 28.154448 -17.896851 24.749247 29.655085 -15.008462 -32.060352 79.059456 19.373085 -17.508711 -76.43573 -1.5855767 -16.712864 1.883616 5.7113576 7.8648338 -11.045241 31.518797 -49.361244 5.1159377 -39.425861 -100.16724 -69.594048 1.9579291 -24.755205 6.3159523 -13.740892 3.947588 6.5856967 32.923954 36.712173 -2.2222545 -23.201324 163.25032 -85.875427 -71.122047 11.595659 -29.992125 33.061829 -12.331402 
astefa_2.jpg 80 1 539.28888 437.10684 1323.741 146.87643 1581.5502 1134.3551 -951.11218 -6.0019536 -925.82678 -167.90446 595.36816 74.254173 -359.92508 411.9751 22.223497 -292.44043 -313.82559 242.74425 -324.96732 -46.467216 135.37375 42.345596 0.11111487 44.415211 31.980375 36.24321 24.708508 -27.064648 -7.5479145 41.749725 -22.064466 81.872795 -29.908247 54.340042 -68.100945 44.500561 56.238464 -36.348236 14.69034 -1.1627038 -25.15654 35.635387 8.0905828 -0.80438304 4.7778516 -57.367699 -33.692291 95.225388 17.604639 -0.14886829 -39.741802 -7.8907218 42.89975 -0.82542729 -27.377544 19.231953 -42.219242 -11.366686 8.4291315 -28.072653 -1.4186016 87.507507 95.984398 5.1177964 15.78271 -52.746323 23.111649 -32.843616 39.706764 128.5004 153.81755 3.6137357 0.83777219 43.664818 -69.568115 71.630203 18.684553 -29.334309 33.320412 -71.944595 
astefa_3.jpg 80 1 525.37274 440.28647 1314.9181 108.15724 1577.1371 1160.0497 -933.3515 -33.596096 -978.54443 -160.13406 588.3786 124.74628 -329.38452 434.75659 35.301331 -266.59875 -350.0437 198.91357 -319.63681 -47.270855 153.05089 44.049843 71.826935 43.004505 43.828644 -24.212103 -0.5360893 -38.937645 4.4313741 -29.039753 -8.1727839 26.599375 22.553411 29.012297 -38.788555 27.249863 39.676449 25.513512 -27.717955 14.642991 18.251122 29.002527 -23.912249 28.495031 42.853481 4.8631859 -79.709747 96.989838 29.935314 7.2334456 -78.218735 -10.066089 -65.443916 -22.049049 20.590504 30.803701 2.8237298 53.619564 -59.521793 20.116821 -73.379417 -174.29364 -160.14026 3.0646031 -78.412498 3.1131732 -46.380844 3.7173152 9.7342653 22.356529 13.411528 -1.9524052 -0.94980842 -132.99196 -71.889946 11.194452 16.100693 -29.464386 33.105289 -59.413536 
astefa_4.jpg 80 1 536.26324 416.87994 1323.1248 120.02951 1553.3623 1147.203 -914.16913 -30.131178 -905.28021 -196.60258 591.64478 81.520195 -326.66336 400.51596 61.51107 -266.4996 -306.57904 239.11835 -342.56064 -68.686966 146.77776 66.855492 71.863182 -2.297678 40.814182 14.139176 16.635033 -39.114529 40.143421 -1.5759778 -7.6061869 53.631565 -15.245522 26.306114 -67.10302 38.499733 21.756382 -20.129204 -22.053358 -5.7545037 -6.8510213 25.985609 -15.594754 9.2401314 16.423801 -13.750089 -61.343277 74.797455 2.6582441 15.129755 -70.131691 -22.942904 2.7662301 0.57194275 0.84990197 -13.205318 -9.1985865 28.000082 -0.093919098 -40.468761 -32.023178 1.3488212 -2.8195612 -3.0482085 19.189589 59.293297 30.131945 55.987427 -18.516689 -91.588898 -170.09547 17.38945 -39.651192 79.161781 -68.544052 71.78952 19.007288 -29.736601 33.190941 -58.86412 
astefa_5.jpg 80 1 538.4339 404.99756 1302.8549 143.20869 1537.4856 1122.9529 -941.07349 -28.011007 -870.091 -212.88014 601.34009 38.78997 -359.922 394.44925 52.171303 -266.6698 -269.35947 263.24173 -333.90408 -87.215218 132.93796 27.399242 17.192888 -0.38976073 50.011879 50.254581 39.022163 -25.339464 22.482674 38.696018 -4.9942126 83.043953 -56.023567 26.392155 -61.193741 58.364487 40.020454 -76.145691 29.929361 14.523766 -24.04038 31.116323 12.622001 -16.830933 -6.8722811 -36.704491 -67.819229 90.433754 -2.6455457 31.664068 -38.404034 -16.48313 57.284878 4.4200845 -38.299965 4.1535015 -29.406061 -9.1253986 57.06477 -87.333359 2.6926751 180.98805 157.86482 5.505455 60.324486 -3.2580364 66.437622 24.620182 22.751663 -4.8168235 -54.599873 7.3620806 -12.129082 -75.587067 -77.226181 -62.327614 11.807813 -30.006811 33.101059 12.34556 
ekavaz_1.jpg 80 1 395.9465 954.59753 -170.78003 -89.371223 1018.3521 -42.455696 -429.92276 92.960365 128.07101 797.36255 -74.398758 -114.73058 -417.01358 486.6911 -535.94073 -614.7049 -141.59471 518.70038 -844.17761 -127.86056 139.60233 43.579708 -57.048401 -4.1228929 12.458429 54.932827 61.374523 -23.418562 23.610334 56.211021 -3.6250305 52.209187 -92.146843 -53.789131 -18.595297 91.179939 -69.866669 -57.494347 51.451401 3.5769374 58.989773 -51.438343 -65.569748 33.388184 -213.55739 52.247589 194.13828 16.387268 -117.55549 172.24261 5.6469016 -19.818554 25.153967 -69.350006 -60.383465 131.09685 -92.064064 22.455105 158.97559 -205.30457 -237.96211 -80.502235 4.656745 -37.368855 -6.2337809 -30.588772 49.192726 -49.750488 -41.369247 42.27652 -15.361929 20.585129 -19.497581 19.782064 -72.317596 3.9077673 15.585979 -29.172937 33.160713 92.46962 
ekavaz_2.jpg 80 1 375.73605 909.53534 -182.06097 -76.444901 1004.4104 28.069696 -443.21228 67.132065 105.72035 878.18665 -99.059959 -4.5488625 -406.06906 531.24677 -603.70514 -548.10889 -130.53372 475.61926 -780.34814 -67.614456 146.18515 147.68405 5.9029174 -12.810926 -0.57889938 -53.827824 45.045551 -17.035164 67.847099 -16.507406 16.841417 12.098349 1.3554428 -60.80706 -8.4234133 15.868154 -23.380116 -22.784754 -43.357224 -2.5306349 42.797707 -39.050381 -12.171548 48.321655 -91.366241 144.32686 11.455596 47.565315 -30.193563 77.374176 -34.27887 13.161569 -95.749672 19.288849 37.59317 -34.741077 48.025494 176.14571 -70.474602 -32.268559 -48.593655 38.503864 47.805237 58.164333 -28.262913 31.552183 -54.832222 173.83382 166.86792 -37.910938 43.861679 -26.367029 -4.9027519 20.087143 -72.344902 6.5629177 15.934761 -30.50897 33.238358 49.924583 
ekavaz_3.jpg 80 1 362.23495 875.99292 -127.28295 -109.34984 1001.7513 -13.275963 -401.61331 97.331146 116.63368 903.78204 -100.59171 -44.051373 -359.79675 530.63806 -609.04034 -598.44672 -157.42493 482.5965 -820.80969 -77.164604 172.30612 135.72429 -49.069336 -9.9557848 -16.873831 -20.473158 57.834866 -34.537636 62.918026 23.614248 4.6513433 65.456322 -27.763945 -22.867775 -36.608627 11.09104 14.149266 -44.184586 3.7558129 -48.703526 -10.089529 -34.35294 45.617218 -4.0689054 -149.38528 61.028145 210.84937 -45.365688 -41.309254 45.026024 25.534275 11.144694 120.12213 -14.669959 -8.7702599 -129.6349 98.469185 -105.75788 -120.24352 170.86902 191.48676 10.147568 -24.541294 0.074804187 15.883175 6.2116714 17.140486 -57.164539 -58.208733 33.781696 -26.743877 13.944034 -20.44454 3.4255104 -76.826851 3.131727 15.312418 -29.811657 33.127956 27.674208 
ekavaz_4.jpg 80 1 329.48999 960.26611 -269.20621 5.7701349 1099.9441 108.27446 -382.22168 -5.8001351 -102.09222 887.70233 -158.54761 155.36195 -394.17728 646.72314 -727.12 -526.28784 -210.53458 351.40869 -660.30042 74.545967 159.01718 154.82751 48.95393 -25.519487 65.078506 -207.14497 28.086189 27.609627 3.1743944 -57.085579 11.846368 -1.023476 95.66571 23.853558 4.7529187 65.009064 134.13022 4.9972925 -62.025909 105.45962 31.400057 67.319016 -4.6582947 29.918015 212.51474 -16.130049 -408.16806 217.95448 173.69131 -131.35178 -154.41478 -11.52372 -215.87407 22.642439 105.58871 19.260344 -45.631954 239.35486 -173.50284 -67.420769 -59.904465 76.61351 14.818892 5.858427 6.9780293 -22.108376 50.563694 -72.495102 -71.916084 48.902927 -25.174776 20.912252 -14.254416 18.507498 -72.823769 3.2067857 15.794207 -29.02986 33.203781 84.395775 
ekavaz_5.jpg 80 1 306.20779 920.88025 -257.77222 61.888504 1017.743 78.790123 -320.84885 27.205114 -89.065521 839.75513 -237.67856 25.354786 -456.41525 557.7193 -694.60156 -600.25214 -181.18973 399.73904 -662.63055 80.840538 78.709991 83.937172 -36.27758 -12.921016 77.593864 -126.54675 29.12324 56.33263 -29.089315 45.85857 -56.344261 60.873589 -85.920296 68.570656 29.002693 91.517921 135.04901 -14.65935 42.053108 65.852448 -40.23138 146.15007 78.775803 -51.037724 252.29146 -286.2897 -370.30038 193.81223 139.13312 -190.14423 -110.15131 -78.391602 158.8737 -33.091827 -115.05971 63.299805 -134.88326 -232.59883 169.19148 -4.1400466 14.221341 -58.962341 -26.690639 -7.6066885 -1.7097365 16.532381 -4.6897264 62.113537 57.701614 -3.7141454 4.128623 -2.8142641 -19.087034 17.174253 -76.27813 4.2032146 15.700268 -29.5977 33.048275 36.722832 
jayee_frown.jpg 80 1 -43.974167 1865.4659 59.059818 -672.48834 796.65613 -1392.3528 -445.73831 120.96629 -137.71637 -493.50369 601.59088 -163.75987 441.72742 729.64227 -161.38397 -300.35995 -416.64331 245.50238 -263.5495 -283.09885 643.28693 843.42096 599.02466 -73.658897 -359.09473 115.05518 -91.287323 -308.01309 231.78107 -442.94135 -377.27451 309.79312 -175.78342 369.08859 -178.08546 319.85245 55.869274 -15.91822 -119.33727 -93.212021 -24.554693 100.52869 75.623505 -44.103653 36.339409 -135.68642 -41.215816 100.7931 -8.3877077 16.808519 -0.92315614 -38.565205 -27.819809 -25.44804 -6.0720711 44.280209 -6.1847649 20.850922 -13.046765 -31.618427 -35.448414 2.7739282 6.2180991 2.4743817 -3.9771934 3.3823278 7.8771138 9.2798033 15.939507 20.214596 -3.6495447 4.0761147 -13.284325 13.494111 -74.797607 3.9192829 15.566403 -29.958218 33.165375 -249.30908 
jayee_neutral.jpg 80 1 -444.32858 2769.2922 425.90558 -453.87912 339.43549 -1397.1462 -1069.1631 382.72095 -1089.7238 -88.537308 903.08984 73.396965 167.8317 6.0181432 323.07867 227.76154 683.76385 121.14495 -1537.8782 235.51147 -171.39973 -66.306732 469.41028 -155.77267 284.73819 -94.451454 225.29222 -257.75241 -320.86444 311.14697 128.04997 27.928247 13.728655 146.97539 -147.65784 -164.5005 271.54013 -73.024773 -126.46049 40.578209 26.036068 39.818562 18.84729 21.653814 5.4145489 -57.444138 -53.419472 119.1403 8.4094687 10.114821 -105.27338 8.262723 -0.17080219 3.1858678 -13.100358 -5.0945306 -2.8244855 17.384998 -4.3981342 -33.627907 -28.368279 -4.9115901 3.3448634 0.38460442 -3.5908751 0.62984681 11.233176 12.687935 9.8588533 17.602844 -1.176006 4.5764775 -17.017344 14.713997 -73.933937 4.65484 15.45173 -29.616907 33.202003 -221.61523 
jayee_smile.jpg 80 1 -111.93103 2603.0593 -648.49756 -259.19293 1105.0911 -997.20111 -643.61072 -266.40659 -675.66046 -596.78534 77.704514 186.04732 121.3561 1099.2798 -313.53149 -742.63794 -1006.7061 343.26163 196.33817 -141.97427 61.091385 -33.160709 37.325581 -9.5373392 303.5535 198.09067 -203.85767 -6.3923345 -332.13934 17.719183 279.22919 27.179928 284.28204 -149.50641 -16.117769 -294.14465 249.6261 -222.94159 -226.63744 50.032001 -69.918068 -126.82299 451.29901 42.69112 -96.095947 90.499992 -67.468315 27.685745 32.646862 15.297307 -176.86673 57.624088 54.993984 -18.115683 33.132641 62.027939 -67.844887 -4.8926916 -2.154254 -42.255257 -29.090845 -3.2209516 4.5749874 7.1854401 -9.4935007 -0.77229077 12.56913 12.634042 13.160432 13.903333 -5.8188725 4.5190296 -16.879015 16.32283 -75.313248 4.8265648 15.568225 -29.697491 33.188156 -127.88286 
jayee_surprise.jpg 80 1 -362.90289 2806.8779 -130.07375 -741.72327 376.03738 -971.83826 -1180.7109 59.563583 -1007.7797 -506.64352 754.11908 234.49344 212.416 487.39282 -75.453842 92.708992 -224.76547 267.89658 -660.86774 501.64047 47.937199 -14.66989 -902.98444 619.75928 -186.72639 -317.44672 -112.46667 130.8046 492.008 -239.69629 -156.33546 -129.85391 -52.108795 -285.32745 196.15663 156.46286 -176.10823 21.071007 20.241634 -122.01468 -21.723885 -81.400719 87.536919 -21.577261 75.080421 8.5204992 -94.409866 111.59615 6.1191134 11.06282 -49.025475 -33.271999 21.77404 -10.451677 6.0955648 -3.0649483 -28.273972 23.978519 3.2544422 -27.386078 -27.388721 2.5082364 2.1750174 5.4841447 0.86512333 -1.8262553 9.4679193 6.3145194 7.5396399 16.087524 -5.3676767 2.5115209 -12.535585 17.471628 -73.093178 3.9407091 15.77441 -29.525551 33.255867 -198.63986 
jayee_tongue.jpg 80 1 -88.136566 2672.1306 -544.87286 -309.09314 1028.3031 -1308.1287 -888.04028 -152.9707 -652.40503 -635.39221 379.11661 -20.592297 86.96624 936.91644 -394.00974 -608.5636 -784.9588 346.10406 -46.873142 -254.37814 -101.71327 -486.09982 -55.443092 -347.39981 330.8627 54.802113 249.13504 124.16695 -107.37312 50.129429 48.762486 -0.59594256 -81.202911 43.319473 -280.89661 179.34763 -143.40219 127.41573 294.31888 180.01646 11.604105 173.36111 -567.96558 20.903154 35.70467 -45.041958 -32.564445 151.62527 5.2844653 -47.871037 8.9660912 -87.367958 -12.434258 29.317837 -31.325178 -64.421005 16.002844 25.506395 -24.173613 -8.9190044 -22.509413 0.69986027 -0.1472217 0.49900365 5.0069084 2.5992644 9.9318924 21.075886 11.142358 20.662964 -1.2346046 4.8885565 -19.104881 17.09919 -74.629684 3.7992456 14.798405 -29.902946 33.131195 -211.47511 
jetherng_frown.jpg 80 1 -2639.9883 -738.63849 -611.04138 -57.724255 1086.5078 -381.8046 -307.15103 -608.25769 -1087.4086 253.1176 757.51031 -668.88177 55.119995 -149.86714 -435.13071 -382.61203 -716.19385 173.22319 -515.44891 181.05408 137.19244 -134.19542 237.58751 -17.11972 -103.41246 -66.017174 25.066132 -447.17456 -27.771801 56.926762 107.16478 502.25397 -28.754333 -385.55789 166.24637 86.381493 254.30179 726.88422 196.01532 56.615288 -132.30095 -82.322922 104.79848 93.418037 17.175161 -7.3347149 -105.32935 79.956818 -172.41818 -43.264736 -41.902893 1.0320437 -9.9936132 -18.273409 23.988382 14.368471 -18.782999 6.1978345 -11.198843 -37.637169 -26.084234 1.5756055 16.903378 6.3876252 -0.22687869 -5.2792287 9.4583483 10.99401 10.387386 15.68413 -5.2984791 3.4324489 -17.906939 15.344877 -74.491898 4.5890369 15.491797 -29.738743 33.255287 -35.659451 
jetherng_neutral.jpg 80 1 -2897.2732 -589.71619 -587.70056 87.133736 1275.7952 -251.78114 -427.35187 -903.70447 -851.46277 108.6274 977.35681 -509.76257 365.33936 -357.14792 -620.62085 -260.8725 -681.80127 419.1752 -561.37268 -235.70007 146.42267 -93.515617 183.95107 127.87109 -3.6133242 -440.26053 -459.13214 -17.904699 -429.30621 339.55893 85.04895 -187.35825 -227.32228 340.69647 220.92003 361.50781 -389.60117 -244.55675 -312.9537 110.53204 -136.09218 -123.79257 -14.208192 40.688007 10.65805 26.560539 -70.842323 114.3826 110.93581 32.416523 -54.209045 -51.029129 30.174419 23.876181 -18.80481 -13.354391 -1.127763 18.519032 -9.8741255 -21.787594 -30.35499 6.7090263 -4.455049 3.1272037 2.020689 3.2947659 9.8237066 10.787116 9.7844143 17.92309 -1.8445278 6.0332837 -14.483803 16.415255 -75.094528 4.1835227 15.702136 -29.615953 33.227379 46.553391 
jetherng_smile.jpg 80 1 -2324.5229 -578.76129 -478.46347 9.7463293 1259.8652 -737.82593 -102.78986 -1070.3744 -1177.1727 52.230915 586.38708 -803.22437 -350.99557 -190.14751 114.45316 -677.64899 -190.47951 815.84625 -290.33109 -15.762793 -34.882725 136.21217 -461.2402 -244.8645 -196.49884 330.09421 797.94281 -367.81873 290.46149 -180.3103 -143.89314 61.317158 -14.680049 159.70142 259.03094 -212.21935 152.08282 -383.61768 -148.82214 220.729 -45.784485 15.393544 -78.480789 30.319433 113.21101 36.890877 -35.825157 117.77326 87.96669 20.593706 -110.05748 -19.087547 -6.9717755 9.4754143 -21.482262 -4.8772373 -40.245678 25.654095 -11.40797 -18.286287 -31.490788 -7.4414806 -5.2028422 1.0307357 -3.8149111 8.2325687 11.324866 9.2526131 11.09046 18.990032 -1.9146252 5.0296302 -15.3622 16.716194 -74.461197 4.2661681 15.356077 -29.684166 33.26746 -108.1816 
jetherng_surprise.jpg 80 1 -1755.9128 -272.21121 -282.61948 -270.21268 655.70612 -414.26849 445.36215 -1153.7633 -1279.1454 74.091629 749.24902 -634.46283 -297.86429 -232.18452 -109.98096 -501.9726 224.78242 821.20465 -333.8479 191.18387 889.37921 420.00415 -238.1729 233.6425 591.31744 81.307022 -242.36879 381.00385 -261.80875 -190.37048 29.986101 -197.89255 31.963581 -4.8751955 -507.73196 -24.069469 212.25836 84.130783 170.98866 -158.08936 148.53365 118.91189 -24.062136 -30.000978 -73.296143 -1.8548884 -88.94883 100.06145 24.054283 -2.6203802 -45.547302 -10.536394 -9.1255302 -3.8393018 -9.7911463 -0.63738394 -19.196547 13.922339 -8.376997 -35.970234 -25.258625 -2.6364932 2.4026699 5.8150263 -0.54512358 2.8754947 8.7985315 13.877646 9.3461285 16.85298 -3.1686542 4.2944188 -15.949994 15.78749 -74.626205 4.0193348 15.555892 -29.725538 33.22308 16.544491 
jetherng_tongue.jpg 80 1 -3911.8743 -459.92783 -543.59967 530.86389 1414.5007 -142.59772 -333.04831 -516.63123 -293.35175 -59.021214 638.79602 -298.94601 21.491142 175.14052 -176.66751 -235.65024 -491.51385 -179.72792 -1159.7206 -1045.8055 -351.14651 -316.02148 -4.152113 -80.773766 -98.228127 233.95825 -323.8515 -71.3638 334.57159 -142.0591 -391.63147 -392.99802 256.8688 -227.36157 -388.07898 38.515366 217.8407 -50.682293 49.895206 -96.323441 -41.719402 149.12042 113.9684 -171.76178 55.6703 -10.514473 -90.944389 127.55375 53.798702 32.377613 -74.873482 -26.432726 24.242655 -9.5616426 -0.2397241 14.002847 -22.811789 33.305462 -12.419453 -25.161985 -30.16559 -7.2720346 6.7076283 1.9344915 -3.3501883 1.2400302 12.381089 10.205108 11.199026 18.481106 -0.46279633 5.3038912 -16.312397 16.664452 -74.095879 4.3066158 15.557029 -29.679113 33.249008 -53.857452 
khchan_1.jpg 80 1 275.32098 1935.3163 -1115.0509 -428.42441 1844.8236 853.93591 80.416702 -613.1543 -546.13055 -101.54671 -348.00897 -194.97272 295.59979 219.98572 152.31076 -108.04153 -325.75488 129.78384 -570.44183 113.2533 125.01153 54.100994 28.891043 -44.15638 8.3259315 102.89059 87.931587 -71.892159 -91.604622 24.813414 14.747827 87.198029 -26.641129 2.9545422 -97.624893 -54.880501 33.033409 -42.725834 12.590284 23.606501 123.70615 -121.06318 84.849586 -60.968159 24.925013 4.588747 -235.33588 145.41408 -22.397087 216.23615 183.47638 -450.11914 44.558502 95.943253 46.868023 11.307617 11.316872 107.54472 91.756668 -65.778404 71.847954 34.776638 -8.8306503 -13.946486 -136.82294 24.175398 -23.476427 -18.546036 3.3300087 28.244659 -10.086883 -2.1863427 -14.802014 24.506359 -75.85627 3.2638857 15.072035 -29.443785 33.152283 118.08559 
khchan_2.jpg 80 1 279.17169 1943.5259 -1114.9669 -480.82782 1875.2603 847.87128 160.74673 -651.48663 -551.63269 -81.132576 -406.23325 -143.02919 378.57886 242.44516 137.12245 -111.70918 -447.29373 156.70001 -610.74377 119.11552 82.697662 122.85625 0.74434638 -30.735889 -4.1970768 20.706825 28.405729 -135.44524 -18.973646 4.7139096 33.885727 56.89048 -40.815903 136.92046 -69.320763 -64.63768 76.330376 75.759613 -2.2434058 -113.83535 239.24933 -264.14996 -41.609734 -262.60715 108.263 72.994682 -57.00061 138.74841 98.471619 -24.561914 -33.786797 -90.241493 69.77021 70.989738 -24.207821 28.19235 44.356686 -84.042252 -151.42206 42.236637 -185.43495 -59.341446 19.567034 16.377954 193.80162 -46.900852 43.238857 56.6688 10.41646 16.783352 6.6884818 13.441282 -15.421686 8.552269 -72.457703 4.5610776 16.373352 -30.713659 33.21019 108.75953 
khchan_3.jpg 80 1 194.39542 2040.6035 -1089.4619 -788.62421 1742.3542 869.25348 133.5022 -694.09979 -663.90814 -115.11488 -324.13818 -201.17349 329.56085 23.663763 87.610695 -236.07179 -258.97736 208.63235 -618.86957 77.253082 63.485477 -16.433447 33.398468 84.484406 69.157272 -43.079918 55.196144 86.38623 96.080322 -26.710863 -29.069908 53.461597 8.3651648 14.467424 -61.453449 128.62689 44.358429 -93.49971 -11.135453 56.24794 -252.16823 338.31314 65.111504 260.60168 -73.79229 -164.44252 -60.254326 3.2952955 -34.719936 -41.22229 -78.424927 50.986549 12.647759 -59.716202 -62.678848 -37.50658 12.791263 -94.939491 -125.04508 96.74807 -221.03639 35.034534 103.45189 38.33075 -166.49757 18.541071 19.175184 4.4676323 -1.0053906 13.676254 -16.297905 5.2659788 -13.317471 17.677454 -76.412712 3.3823638 16.087902 -29.107716 33.092564 119.26582 
khchan_4.jpg 80 1 216.26814 2026.5214 -1039.0275 -799.6756 1722.9932 896.29633 70.503204 -633.04913 -626.44666 -127.92112 -270.43445 -231.59346 351.43198 43.479607 79.869667 -217.61877 -257.46567 171.05638 -623.72437 67.314774 111.73319 15.280651 64.424576 58.553047 16.654881 -6.9647117 43.371658 66.767708 103.73811 -30.074032 -32.973877 30.281622 33.471615 -18.896564 -111.74449 108.75079 7.2270837 -103.58627 -42.98098 132.3004 -274.03055 357.08127 65.064255 363.49277 -116.26987 -88.023537 -95.473663 5.3343334 -82.07238 46.4589 -50.074398 9.3642101 -90.37571 -73.277374 6.0163255 -32.036678 -86.812569 122.99455 48.86684 -101.78439 101.14126 -51.960506 -79.489113 -22.517954 200.00656 -20.38567 16.952168 32.179253 22.830833 21.428547 12.904103 10.011189 -16.404102 10.973316 -71.417 4.4667501 15.128299 -30.437288 33.173244 175.75996 
khchan_5.jpg 80 1 257.71832 1976.9513 -1090.308 -614.16699 1845.9716 831.41901 172.91452 -661.5896 -609.47986 -90.233536 -367.86255 -167.37737 395.21649 172.10246 95.923653 -144.16547 -430.37277 148.58673 -638.24731 83.311218 97.79763 63.792484 12.58079 -86.560982 -26.377783 -59.097992 -14.663139 -97.72068 45.610584 -83.018425 49.402687 -25.209682 -55.984306 194.24747 -67.68029 80.161514 29.517681 116.61251 14.952205 -82.513969 116.00938 -130.04927 -195.85849 -190.96027 119.61852 115.83524 112.85596 152.8074 85.064461 -118.12513 -255.02161 392.58331 6.7515001 -65.194519 -13.213117 93.023666 -56.80341 53.414883 87.390076 -115.92609 104.50054 28.460459 0.56256765 0.18117857 -96.74131 33.422398 -9.1520748 -17.992805 19.555721 13.630527 -9.7048101 -4.4794388 -16.087553 16.118898 -76.531334 5.2952633 14.7767 -28.897293 33.167446 189.44534 
lfso_1.jpg 80 1 80.830544 183.50771 -228.11589 19.478849 -5.5671124 -8.9474974 -31.14629 21.59605 52.312016 88.666023 17.88273 -15.658093 -55.742767 -53.896656 55.292763 -1.6647586 -48.829086 -21.618807 9.0156517 -29.486601 -0.56042719 -37.821659 17.392101 0.63633263 36.648689 25.598183 -21.851959 -10.926692 -3.2237225 -13.361692 -21.438852 -3.7418897 -6.498517 24.541937 0.82309985 8.7700424 24.278368 15.276557 -24.127327 16.054289 -16.736872 32.443642 -0.76118237 10.046424 31.381575 -16.452658 -32.251305 58.475765 30.260633 1.1344404 -62.568165 -28.994564 -7.6645613 0.011102663 -5.4901209 6.0373588 -19.765547 20.948656 -17.589411 -39.560196 -36.372307 2.1355212 0.34489915 5.1981187 7.4914255 -1.232686 10.29597 17.307074 12.018794 27.103617 -8.4649553 1.4393662 -21.514143 10.922565 -161.71672 16.484509 -50.349258 -8.085186 37.280582 -20.089928 
lfso_2.jpg 80 1 77.456924 177.59033 -225.72099 36.17347 -1.8303546 -0.50850087 -13.6819 21.457514 54.627125 63.87492 25.416019 -24.734558 -51.04726 -46.42849 60.574692 -8.7051163 -60.935635 -23.433477 32.867939 -29.414597 2.8787415 -48.569599 32.21011 -4.0408382 37.566788 34.025772 -19.729649 -12.819467 -12.856761 -19.169666 -11.659988 1.0069538 -0.76104242 32.362576 -2.2010198 5.7367802 22.876547 13.229303 -22.40761 19.667999 -14.350902 29.912691 -4.3943186 3.6773767 38.064777 -20.214451 -37.94886 59.333244 23.703491 9.0538349 -60.433544 -20.397644 -9.3098431 0.095489658 -18.022295 -0.96636868 -9.7969627 16.270336 -11.671521 -33.841076 -23.427851 -6.1118169 6.4954233 5.1545043 2.81634 2.1792271 11.604324 8.984231 10.540822 15.027784 -0.20420818 -0.73659587 -18.504097 17.764364 -53.58073 -2.5108514 70.349358 23.327171 25.287573 -2.1025178 
lfso_3.jpg 80 1 78.453087 178.82587 -227.75616 30.81072 -0.81613564 -0.9578858 -15.368319 18.223808 52.484467 73.147842 23.034859 -23.679832 -56.453819 -49.944637 58.202972 -6.9965763 -56.772449 -20.547714 22.299177 -33.58894 -1.5239065 -46.021366 24.596962 -3.534117 37.502472 28.75429 -21.922953 -9.9068546 -11.475994 -14.781608 -12.080185 -0.95391756 -6.8868084 29.878574 -2.5381091 6.8637061 23.579258 15.553677 -22.644438 21.201557 -18.184402 33.11055 -4.0964241 5.3243928 38.878761 -21.989304 -36.377285 56.942211 29.043858 0.36752304 -66.240982 -19.962042 -4.2598257 -0.78509796 -15.43193 3.1822014 -12.883768 18.501417 -8.7895508 -35.296833 -28.131277 0.92322308 0.95668155 1.6168975 -4.5593591 -2.853627 9.6898575 7.3230677 7.9154034 16.232439 -2.1728396 3.2950077 -16.433849 16.302288 -75.68837 1.2461711 49.91687 -52.877552 67.134537 22.080805 
lfso_4.jpg 80 1 78.525429 178.79759 -222.82445 22.609522 -6.1783943 -2.8474057 -23.835117 20.914083 53.04353 76.832558 25.523088 -20.200306 -53.707409 -51.563709 58.107403 -4.2518902 -51.020088 -22.336298 15.437716 -29.660288 -0.067415521 -43.79924 17.426222 -1.7463559 35.613979 27.110994 -18.886202 -9.1715508 -7.1300721 -10.761925 -16.391115 -4.4774146 -6.0776806 26.646688 1.4676366 5.222116 24.416048 16.181593 -22.924932 18.209221 -18.680058 33.101627 -4.5507417 6.8942318 36.358566 -18.430874 -33.823666 55.065914 31.158407 -2.7806022 -66.195969 -21.384335 -6.0929003 -0.50919819 -9.8485346 6.8264394 -14.194948 22.480644 -8.8759241 -39.147675 -30.947348 4.8749599 0.13654391 0.9614619 -3.1618853 -5.2785573 10.718089 10.812668 6.9790478 20.386467 -3.5757663 3.0495446 -17.338743 13.852652 -117.06861 6.1129608 43.641998 -71.78656 7.7086754 37.356022 
lfso_5.jpg 80 1 69.996758 169.22983 -221.57057 47.047829 12.974575 -0.060296673 4.2292914 10.34675 42.008022 68.947823 15.559641 -26.638523 -62.629604 -51.659256 50.206516 -9.976264 -59.673107 -18.23258 33.205093 -32.889053 -6.2182322 -46.599815 35.52832 0.83001858 38.543991 25.020206 -26.562834 -7.6350255 -16.926113 -26.66374 -5.5804906 9.1562338 -8.5147848 34.907433 -9.7036619 5.7207465 23.272142 12.860131 -26.84273 23.365391 -16.266106 23.628408 4.9056077 1.2177267 46.223518 -22.217131 -42.446011 65.358902 25.588675 4.3897023 -62.65966 -13.519265 2.0818818 -4.0335698 -25.722898 -4.3167272 -9.0599232 12.174459 -10.400658 -27.266588 -27.10928 -4.1220207 2.0805941 8.9991693 -8.5801525 4.780293 8.5369244 0.4690598 8.7835712 11.292946 2.0090275 7.160749 -8.9220037 23.341003 35.469925 -0.30925748 -36.790276 -39.141045 28.409035 9.3913183 
marcus_frown.jpg 80 1 -2652.3479 -504.35931 -443.30081 313.03833 1321.3785 -319.90692 -1028.5619 -362.5672 -563.72644 561.84924 459.79587 -320.03931 193.62941 110.8649 -305.85468 -401.7915 -810.16138 -131.18135 -99.120392 913.37878 -217.8134 179.55315 466.40115 -50.377632 -457.05005 -466.57474 273.26294 133.12279 240.47549 53.031376 228.28008 -139.28008 323.71902 -58.573387 -446.05634 53.334408 108.67344 -347.59937 97.603043 -194.32149 240.24847 31.795898 -40.255959 25.226423 -90.419777 -161.80794 -23.368895 65.599976 -32.924847 -20.460421 -59.509315 -24.431517 22.331778 -28.338369 -23.058563 23.468082 -11.572417 28.893051 5.3468742 -30.764448 -29.69096 -1.1923778 4.8760095 1.8726804 -4.3730555 -0.97883207 13.14095 14.552463 12.350245 16.485092 -3.2552559 3.3652585 -15.026962 14.331522 -74.687874 3.7568955 15.361862 -29.830545 33.277149 -117.32674 
marcus_neutral.jpg 80 1 -3784.4998 -291.12903 -468.78366 392.29379 1622.4132 228.58423 -1310.8022 434.61456 144.0293 162.25737 -53.140656 -274.47104 567.59528 485.06686 397.30835 -604.39319 13.094483 129.61366 -310.67627 340.7963 94.696579 319.14249 -97.743843 -79.456558 422.67502 -416.22565 114.32284 -79.00238 -116.33982 -158.55995 -253.16499 10.086943 43.439812 -24.099575 -286.07755 152.71164 141.9991 -95.930473 -41.278576 200.12285 -582.29236 -72.051842 -58.179283 -238.89294 48.015495 344.04581 -119.77934 179.59033 -217.08272 -11.872527 -53.870262 -44.377071 37.238018 -25.047567 -46.636276 3.3025792 -61.303967 -8.0152206 -22.858902 -31.060419 -40.181877 -5.0738473 -2.8193815 6.3705463 -3.0131767 0.64052814 7.017653 10.450225 9.7198334 19.71682 -2.5806103 3.8631105 -13.967877 16.633869 -74.824791 4.4786782 15.73676 -29.775541 33.289967 -172.46001 
marcus_smile.jpg 80 1 -3928.207 -160.11983 -568.1131 321.2088 1419.7188 210.43819 -1175.8872 328.09805 58.991798 -277.59457 -395.74472 -63.23806 744.5993 389.15631 513.05676 -686.9425 -131.12128 446.0871 -384.13583 -219.45384 273.46887 254.51741 -228.87782 367.86853 304.41696 -147.65245 -142.37099 -614.79913 -212.0125 173.92818 -96.671707 43.801163 207.28891 -344.03406 153.94469 303.46774 282.88284 -149.05736 -110.8594 61.069199 449.76852 108.27792 -193.74008 153.6638 28.076662 -225.40935 12.893157 43.077774 74.098351 -43.776733 -49.405624 -15.734119 -30.784145 0.81891608 -27.622004 -24.292744 16.180725 27.860746 13.569517 -23.236471 -15.90891 2.1569269 7.7903414 2.1458142 -1.6792206 1.7487348 11.075889 12.870632 13.701129 15.967245 -3.6522086 4.6810598 -16.572353 15.609322 -73.749878 4.2070384 15.116731 -29.816822 33.268234 -105.51391 
marcus_surprise.jpg 80 1 -3831.7871 -58.616676 -218.79047 767.63068 1563.6864 -183.6111 -1716.0286 -210.39972 11.706469 198.84778 186.34016 -266.89124 829.77661 394.1272 374.67169 -736.86627 -24.646999 194.24762 -725.8642 353.55881 245.64334 -206.49525 254.94206 -56.164196 -168.96414 534.59302 -436.01767 756.98755 199.42386 -274.18875 211.48558 97.193047 -174.60326 166.88699 340.48999 -139.35406 171.10361 59.728214 -37.044483 254.16867 97.620384 73.429855 -59.842545 -4.8600373 31.468834 -52.664745 -17.348591 108.18884 -2.0076287 -11.362492 -52.303944 -22.035774 -2.2763455 19.566782 10.496121 -8.1806221 -5.4669251 13.148098 -15.946423 -35.284786 -27.214966 -1.32618 4.0775743 5.4560285 -1.1909416 4.3523879 13.035105 13.303333 9.238678 20.640844 -2.6604123 5.4186053 -15.926816 16.225029 -74.525284 4.3270717 15.297832 -29.798178 33.281116 -203.10504 
marcus_tongue.jpg 80 1 -3500.8831 -341.42709 -505.93948 330.64319 1494.6587 -54.429615 -1374.8016 262.29089 56.665413 -61.037285 2.5298977 -381.35333 692.88153 357.44778 209.8912 -775.16614 -42.799648 308.70047 -380.0192 -109.92579 311.86423 -327.54282 -173.81137 -243.81065 338.11203 -129.39163 432.73682 -105.87163 175.98683 150.40919 -16.014502 102.07282 -309.89792 219.3148 -246.31895 -133.91881 -371.97992 179.03247 73.083961 -515.68805 -14.371011 19.497393 322.80612 139.94702 -0.41150308 -123.62489 -149.30864 57.609772 230.24692 80.978539 -83.631577 50.417816 -14.036698 1.3884403 41.35569 38.945099 -13.58003 48.35173 -10.325755 -26.015272 -30.663479 -4.7040348 4.7547164 -2.0451672 -0.61866313 -2.9846928 5.4083133 6.6203542 8.3312845 15.589601 -3.4472146 2.9524169 -16.139456 14.900211 -73.998459 4.1069989 15.38025 -29.640471 33.287373 -119.45238 
phughe_1.jpg 80 1 735.74512 1856.5018 -873.49213 539.08081 1373.8845 588.66003 -358.4422 187.36569 -164.64613 28.399443 779.75055 -1267.3273 -47.663361 663.29425 -179.20238 -291.08051 -103.68747 99.918167 -351.93912 -17.44906 107.40656 159.5448 -5.8592677 51.096546 28.035368 -63.657814 5.8807802 -33.685375 51.812042 19.628805 16.952625 39.836956 32.675484 24.375727 -31.284231 -32.015907 86.244675 5.6160865 -35.125042 -54.598942 -34.395733 39.017155 75.193764 -14.184027 40.115215 -36.419571 9.451787 75.056999 49.962814 -169.68199 -87.534401 -0.70051467 95.035782 93.076508 11.468741 -315.6228 72.055595 38.865887 85.0158 -94.076721 -138.7294 126.18005 -143.49408 1.9441618 0.5476802 30.41799 13.921061 -9.8346596 6.0810409 -9.1040382 46.645214 12.036777 -106.00769 6.9337583 -73.360275 4.181385 15.353529 -29.275196 33.119816 -47.579292 
phughe_2.jpg 80 1 705.96869 1778.071 -918.36731 526.50964 1286.2754 443.37079 -422.82568 199.40135 -104.82349 -55.871136 868.47662 -1307.515 -95.761246 600.06671 -87.647202 -265.37491 -30.978914 109.3716 -365.75296 -48.918674 120.25316 32.127663 4.2074971 26.094208 39.341511 -43.224365 -0.082975976 -12.012599 -11.64542 32.778355 29.135775 34.525185 27.935429 -23.880695 -10.563797 14.47912 32.862019 -47.679626 24.018501 39.804138 38.544868 21.151499 -30.945761 19.161821 16.672657 -44.987537 -64.72271 67.532837 6.7571988 32.887276 -43.425812 -24.35445 -17.310688 -37.774067 -25.654942 111.31666 -64.3451 -18.543848 -49.768505 -20.298365 -22.125908 41.326351 -23.861624 -0.68665779 11.678352 -8.6822729 15.478333 -45.996956 -28.035284 -154.81801 59.723248 -26.272142 127.47168 26.540501 -81.358437 5.9173069 14.794853 -28.894135 33.161266 57.631939 
phughe_3.jpg 80 1 691.44098 1685.0048 -871.77972 494.23383 1192.772 456.97885 -430.82138 208.50888 -114.27009 2.8147805 855.77441 -1299.9297 -65.343269 597.40594 -83.767792 -253.86171 -27.287338 113.48782 -382.24149 -62.370667 104.20722 38.06266 -28.944607 35.478386 26.745342 -56.017849 -1.624639 -24.362427 -4.9056101 29.998117 36.35767 22.036188 42.785938 -26.065504 -8.0484438 5.592967 39.655499 -29.059563 8.5775089 6.1750441 31.658867 11.351912 -32.629066 44.330791 4.817112 -41.169216 -68.448166 69.018303 10.920287 40.350655 -35.082661 13.738057 9.7117939 -38.933723 -31.298605 135.12628 -52.023685 -28.622089 -58.240177 -20.570551 -39.772968 90.56398 -110.51592 37.93977 -1.1244736 26.10537 3.9403536 82.607445 47.351242 207.26353 -110.76085 4.2085896 50.949375 28.237469 -70.029015 2.9369144 17.194485 -29.479385 33.196461 -23.658253 
phughe_4.jpg 80 1 680.16522 1684.4034 -886.17365 519.35767 1185.0278 430.30405 -465.71317 201.38397 -103.32831 -61.758499 912.92535 -1279.9728 -92.451584 593.62067 -48.056549 -232.02649 -10.065509 122.56834 -369.18561 -30.189651 133.88376 27.851381 -28.41419 37.008087 22.605503 -66.79805 -25.90082 -5.9625287 -5.8313899 32.656803 28.718937 11.850668 38.158188 -25.0257 -1.6106191 28.983604 2.4448199 -64.404778 11.023042 67.805191 59.587124 -0.48762015 -76.451546 48.810642 18.995251 -27.127445 -122.57788 81.444099 -11.598198 141.10738 -37.705563 -23.087008 -78.003136 -112.44956 -28.367825 301.47906 -103.76555 -7.2132215 -112.41209 26.753111 39.63818 -38.987366 72.126381 11.963905 -8.4293289 -4.2837701 4.426332 11.000299 14.716589 -13.904913 27.690306 24.091133 -170.94809 5.882268 -72.162323 3.6120431 14.551628 -30.616018 33.112881 -32.58503 
phughe_5.jpg 80 1 683.42773 1795.7786 -905.42438 586.23328 1251.5568 524.28668 -349.37677 224.80823 -167.15887 26.247791 860.21381 -1224.1965 -77.4673 646.80951 -168.29601 -291.03915 -97.955345 109.79192 -294.00909 7.5962286 123.69417 123.19361 -12.643468 33.83316 27.204872 -118.15113 -15.569128 -5.5888419 19.553247 5.2715564 8.3565321 18.601259 53.563759 38.178875 -32.090481 -20.940016 61.374714 1.4875875 -70.547043 24.462997 -29.101393 40.917419 44.024334 -12.414949 57.494938 -23.604124 -48.240097 103.72691 56.943539 -95.412498 -124.43841 -11.559783 -28.594521 79.408028 18.597172 -198.9164 68.381218 110.94886 92.317291 -21.056217 14.40387 -229.69048 221.37505 -32.648861 -13.366991 -34.936817 10.43618 17.791698 10.038538 62.648933 -41.718048 8.0419331 17.763899 12.858494 -75.805717 4.692349 14.856133 -30.202158 33.188007 -57.545738 
taumeng_frown.jpg 80 1 -4964.4111 2011.5264 645.91809 1468.6329 1166.0302 -237.57379 703.82159 -97.929077 -625.69513 173.47972 113.76926 -213.51895 56.471588 529.51556 -2.9048185 -296.90222 -771.375 -255.39484 -502.25351 172.38002 342.1467 282.68048 444.96552 527.98395 397.37366 -98.988976 252.65144 17.947165 216.67662 315.34369 -616.51514 -159.86804 -153.43785 9.0227118 168.98515 -314.89313 -91.669113 19.274721 242.59271 309.06277 27.041752 2.7059808 -15.801723 -24.160952 -189.94618 -15.742797 -70.800194 33.59819 168.28632 -2.8963578 -87.605598 1.0683184 2.4244115 -18.096457 -5.0754981 10.706235 -22.211432 17.019903 -13.188502 -38.309288 -19.682995 4.0282335 4.9193139 9.4278717 -7.2955661 -0.70539647 11.497794 13.209454 11.216003 18.373995 -6.1166234 4.0079288 -15.993737 16.814211 -73.683868 4.0659652 15.333672 -29.702036 33.315575 -291.9202 
taumeng_neutral.jpg 80 1 -5172.8608 2633.4993 817.8938 718.20422 1406.3141 332.04248 49.97163 794.39288 -849.42731 173.6521 93.215996 -386.3782 254.22697 -151.76591 -394.07172 -642.32391 -170.96745 441.62085 -359.66025 172.79955 -484.27444 392.28918 -90.167191 -176.84406 11.926643 -71.30825 -211.95114 -105.18533 -276.85532 -413.80182 -67.887695 -186.76021 145.2377 171.83588 -158.01749 -16.469191 -85.400475 122.65205 269.7847 183.86681 25.445459 -37.847061 171.50183 321.18674 434.65454 -29.165241 177.44946 49.719666 83.679054 104.51599 28.748182 -11.082163 0.76492548 33.749149 6.9834151 38.448811 5.3141389 6.2256889 -6.8813767 -37.98307 -36.974148 7.7523584 11.73813 2.0209742 1.9690821 -0.22597893 14.594506 15.082894 9.0986004 15.079062 -4.991549 5.476758 -15.874186 14.351497 -74.978821 3.9339542 15.613946 -29.760527 33.291218 -328.33984 
taumeng_smile.jpg 80 1 -5433.6484 2897.9761 893.24713 296.12445 881.21185 607.40485 221.84334 247.91704 -607.73529 -104.99743 89.515984 -665.23553 17.021811 -47.707882 -264.16208 -720.32556 -71.014977 571.88885 -127.88065 125.03011 -551.22833 -20.575907 -38.326439 -167.36829 -13.269866 -118.1235 -195.45134 -158.56842 120.03661 -167.74602 46.314243 49.272514 -751.86127 -191.54733 -254.99321 87.195396 137.22807 5.5101976 -336.59329 68.390297 209.96857 139.58345 25.179134 -169.364 -306.79425 -20.373968 -236.49127 57.714069 -43.836887 -58.165398 -100.88301 -4.8504786 22.186642 -29.156904 -2.1539214 7.008934 -26.379747 51.074894 -27.512928 -17.156324 -22.496704 -3.5037339 -3.0930982 9.6354418 -3.6802711 1.0917684 8.3759089 5.3634338 7.7569294 20.755297 -1.8984716 4.5648985 -15.833614 16.608866 -75.077118 4.0838346 15.779157 -29.61717 33.27298 -219.6588 
taumeng_surprise.jpg 80 1 -4802.1284 2449.6313 767.02509 1010.0218 1103.5031 99.808495 352.38336 711.51233 -1067.5984 50.022591 -9.9941235 -241.67279 345.09427 -203.87973 -286.54294 -587.96484 64.917786 -139.27187 -517.38617 -229.38513 382.91776 -88.039093 -295.43036 -167.00041 -286.99405 0.19130188 98.523369 49.605831 -292.97046 -241.51732 99.585396 353.62134 666.24939 178.57431 197.55388 150.95827 -127.95993 -66.64222 100.3057 -182.94003 -71.51371 25.673323 -91.620171 -154.321 -357.43558 -35.565144 -221.81174 121.24734 43.15284 -57.982315 -111.02946 -36.08329 -6.3293748 -22.445343 -11.450749 -4.2659321 -21.120964 13.482628 0.2945846 -22.933847 -26.049017 -4.4792652 0.71110165 5.7096782 0.32297894 2.427314 10.779873 12.348845 14.335845 14.986017 -2.7324262 4.2306061 -17.133858 16.342632 -74.563835 4.0062404 15.220292 -29.898907 33.322376 -310.99213 
taumeng_tongue.jpg 80 1 -5229.8022 2708.1675 810.51093 838.07996 887.53766 60.689533 622.02509 221.13803 -799.22369 -107.83691 -123.88239 -423.89136 57.412067 135.34744 -428.13223 -527.86542 -199.28333 60.929245 -323.36279 -74.444809 717.97729 -360.6272 158.98848 36.9165 55.268681 29.531649 183.58434 256.71857 334.47693 450.20938 75.114395 140.61777 -95.095787 -192.56689 -73.931152 240.89886 309.81293 -229.4724 -276.94992 -274.82019 -88.813087 -23.849279 -39.53001 56.659691 459.6767 65.971741 76.029457 151.84064 -139.68912 45.852806 8.1636753 -17.26438 -25.57527 -9.5708466 2.5085273 15.03474 -12.351464 16.63023 -13.493386 -30.87443 -32.126755 -4.2045836 3.6657271 -2.0376267 1.2254547 1.8840761 10.10749 12.737496 11.748835 19.513542 -3.2186458 3.3831713 -14.839093 14.64122 -74.749222 4.4487267 15.439148 -29.832764 33.353401 -250.9566 
vstros_1.jpg 80 1 396.5838 1469.1639 -584.88452 162.96759 540.34369 559.66547 -170.88596 431.99841 -193.76265 -30.002768 719.43536 -109.57538 -87.083069 -112.17918 376.43491 -733.47736 -663.31622 306.01263 -604.86127 61.088554 117.52818 17.253616 85.064629 -103.37222 84.264526 -98.714638 76.667679 9.4947166 114.03191 -65.340332 -18.057871 -80.17083 -4.7918091 1.0345236 -0.00017289339 101.66193 127.80104 75.858452 -121.58652 -108.75874 19.95068 103.25109 103.1755 218.3759 -191.53201 224.38335 250.60782 545.65808 235.17722 -344.57687 11.460122 -231.69475 -93.63002 -22.996162 -22.787441 63.733559 -105.20114 -44.397366 -25.20896 -47.248726 -6.6021452 8.6456766 12.885268 13.71662 -8.9452944 -4.893168 1.2006629 11.886964 16.345091 12.999506 -11.473931 4.6050444 -17.379436 13.65768 -72.316437 3.856606 15.851706 -29.659849 33.169941 6.9358292 
vstros_2.jpg 80 1 346.30032 1515.7789 -492.57138 441.14047 353.19266 383.60635 -193.24132 440.88339 -135.32109 -138.00485 760.25348 -85.218964 -85.697876 -182.74097 472.50583 -803.09973 -1003.0584 412.03241 -810.93048 73.757759 185.88358 10.899047 10.755414 -84.810295 71.038811 -34.480709 -1.9992386 -17.058853 -15.594795 -73.845291 83.645805 28.452133 41.593819 44.908718 -61.701641 -88.500816 16.902317 -35.334301 -68.921692 -30.292631 39.592068 -63.522064 18.826426 -110.93344 152.47617 39.393806 -256.23941 -246.10229 58.168484 -69.613571 258.72467 62.106197 -174.2401 -224.63969 -306.2099 -122.04755 -36.743584 40.714668 -7.4478068 -46.789993 -29.009609 -3.8942139 6.411252 1.9078434 -6.8658781 13.271162 13.394773 -0.99719822 18.007233 21.468452 -3.4555888 9.5411339 -14.439065 17.398054 -76.702721 4.4782238 15.187935 -29.875027 33.191109 -22.69066 
vstros_3.jpg 80 1 372.51874 1310.9076 -609.06512 311.44199 421.04779 451.55832 -56.7892 463.98111 -30.260214 -139.34872 538.17908 -161.27771 -222.85684 -59.940815 270.82535 -724.5224 -731.23853 285.49908 -556.24158 94.832932 167.6967 -3.4610355 6.3124247 4.1310353 102.06802 -33.65786 34.493549 11.687925 19.927677 -4.0811772 -1.5167584 90.78508 -42.004841 78.978584 -34.094681 211.50854 91.268539 -60.224522 172.70108 127.20363 141.30116 -6.756875 149.56931 3.1526527 2.2324369 -111.73916 -141.13574 567.14777 -110.23389 463.59894 -302.20865 80.368065 19.474331 -34.217815 -157.90714 -139.99184 7.9357991 45.519073 -24.506926 6.5935826 -32.264767 -4.8522544 -10.110822 13.564717 8.3465586 45.96434 25.416286 29.665382 -18.048199 24.88512 13.554409 5.1544514 -12.379773 18.411577 -77.479095 4.1640892 15.605136 -30.238646 33.148129 0.24632344 
vstros_4.jpg 80 1 359.50781 1434.5029 -608.36487 193.4523 412.34668 454.17517 -101.84622 524.9278 -47.372059 -101.42446 675.60645 -151.12788 -229.46306 -229.08734 406.18854 -838.25842 -817.63721 368.95206 -734.02832 103.69634 230.12569 27.533308 -56.206768 -47.142666 62.815521 -72.77919 50.424412 45.940422 -0.45918131 -10.936589 -40.690273 4.8321004 6.6828666 81.217545 -64.777077 98.013695 102.25401 -43.322689 -12.281007 51.413635 -66.226418 77.115356 -53.039017 -31.004019 52.094654 -123.19101 -89.944878 -26.602654 -52.073822 39.918892 -148.0777 11.456588 138.51778 119.7467 182.01399 81.239525 43.255581 44.166698 4.3391809 1.306173 -34.220886 21.105753 -36.557068 17.202051 -19.630852 -225.32722 -9.773448 -55.215996 110.89088 -9.1738977 -58.883884 -1.1711619 -25.676954 23.641928 -72.917213 4.6894708 15.031133 -28.992422 33.070362 3.5822494 
vstros_5.jpg 80 1 352.43982 1444.46 -582.13605 172.1089 370.66263 424.46228 -144.01936 529.89056 -61.087318 -63.503765 671.19617 -127.64469 -205.57208 -229.56783 413.83499 -817.30548 -792.07098 353.89236 -733.99786 92.229324 231.9315 34.61945 -29.405088 -51.061134 76.554283 -94.670303 54.155773 12.081553 28.433031 -19.925688 -36.533718 -11.380121 19.71419 46.678619 -61.336521 95.460449 76.115021 -34.837975 -32.109222 20.595549 -77.106194 55.362083 -69.160713 -21.64163 36.601551 -76.341896 -86.969032 -146.20152 -30.74264 -70.071236 -102.10506 -22.642797 127.15131 141.57509 284.7135 148.37579 11.878863 31.479923 10.546871 -33.631851 -40.389698 -16.237707 37.719872 -19.689169 23.202036 195.606 23.62838 70.673416 -72.711487 38.45874 49.045498 12.762785 -6.8872895 5.2061024 -73.083267 3.5283611 15.395677 -29.869591 33.229324 -23.820042 
wira_frown.jpg 80 1 -4769.0444 1114.2588 -455.51807 985.14423 809.92285 633.70874 330.52606 -1146.5015 478.05228 -964.58191 642.57556 202.97324 -662.87579 1033.3374 -195.11983 -165.15343 -63.925438 702.09979 -562.94568 901.39105 230.94843 -405.28024 38.850857 -589.29272 119.21205 -124.64187 -442.0473 -391.86551 80.773117 16.556992 -365.93048 86.556526 234.31158 168.72807 115.34558 27.590607 7.4849706 -65.093346 10.49816 -126.0713 20.05337 171.16219 19.997311 4.1062322 4.0394878 -1.402619 -18.770479 74.553711 -21.634642 25.608501 -41.557884 -21.305534 -5.7219343 -4.9683266 -0.73090786 4.8918891 -11.956697 18.553612 -6.0225878 -28.758211 -31.859936 1.8216304 0.20390238 3.5031762 0.11715683 2.4635692 12.131612 11.787069 12.164685 19.78966 -2.4705091 5.6103001 -14.504881 15.158318 -74.265717 4.404758 15.23559 -29.883284 33.301609 -216.43951 
wira_neutral.jpg 80 1 -3974.3394 585.65582 -823.29016 855.37036 1197.0551 553.73883 247.22446 -174.80826 291.68225 -1125.8684 615.12341 329.37253 -290.4592 681.15015 -280.57333 -361.97055 72.352142 217.35808 -634.07324 28.607786 20.293552 45.217449 109.59009 208.4276 -89.16095 154.69226 447.46021 113.48763 -104.84705 -259.8317 180.74387 -297.07974 -167.84019 65.269806 -112.08617 383.38156 363.97495 61.101425 11.208217 -3.5213895 -188.55626 -535.13287 -59.797234 263.78656 -146.90901 -169.13759 -142.1174 9.7972736 133.64902 -24.242302 -76.060585 -8.269578 6.142334 -9.5040998 -32.467976 -11.991152 -10.630057 24.743368 -4.5669408 -24.054482 -23.854403 -6.6940589 3.2347791 6.8326859 -1.9294046 0.81534976 7.5063205 11.738339 11.377029 15.968818 -2.7995899 4.6735802 -16.051544 16.032276 -74.996101 4.0922337 15.436587 -29.698494 33.270542 -91.185295 
wira_smile.jpg 80 1 -3381.7046 127.70226 -1068.9496 859.841 1299.2102 292.39294 266.32654 -132.20561 -10.195795 -1086.2483 662.11609 384.47427 -129.93365 550.64471 -306.50031 -576.23486 -24.768093 278.16397 -607.84631 -38.726768 -140.56934 367.22678 134.64626 517.17755 -48.992928 70.796532 524.27301 41.811665 -147.62877 68.081001 463.43216 -25.304285 70.183372 53.985432 11.360771 111.20448 -275.89722 171.46703 -102.16587 80.997742 150.20441 492.29788 184.88898 -262.45499 155.64088 113.55206 10.465455 109.94807 -142.70839 -22.510859 -26.924011 -20.81451 19.746412 -24.94842 18.151358 33.831749 -29.791676 22.332876 -21.411533 -31.722898 -26.344555 0.28829631 3.4098856 3.4960527 0.37398672 -0.019629698 10.145106 13.177988 8.43855 20.963058 -4.4906449 4.7287951 -15.862632 16.36322 -74.777107 4.1255312 15.370708 -29.733377 33.265781 -168.88783 
wira_surprise.jpg 80 1 -3244.8291 -169.78891 -774.86914 280.08588 1081.038 246.1781 337.53326 139.31956 -11.645582 -704.85962 539.83527 241.14517 -193.08989 263.67279 -221.6568 -331.79865 -244.42096 11.385171 -797.95496 -250.32419 248.65067 62.229179 -159.43341 242.61908 -103.56029 -409.13028 -274.87375 -52.053638 87.507439 -210.32861 219.91368 733.83508 -164.45775 -96.227196 -447.44278 -538.93866 -124.29666 -284.87274 -14.917355 183.67499 -30.592541 -89.147179 -186.55467 184.28886 75.785248 -66.350235 -22.639036 215.11252 39.735874 -59.696968 -73.475166 -7.8764362 9.9412556 8.6224232 5.7609563 12.936853 -12.760987 1.623857 -0.52821881 -29.782303 -32.903389 -0.63748795 2.7724771 3.1687057 -5.6240439 3.4255643 9.1615047 11.404549 9.848917 18.036058 -3.3073421 3.1926181 -15.424553 14.424668 -75.496872 4.3447671 15.746729 -29.585808 33.250175 -17.637173 
wira_tongue.jpg 80 1 -3746.2798 859.7243 -762.59558 -1428.3307 1074.0862 676.26886 -384.04779 586.89825 -172.63327 -977.08447 707.13702 141.84352 248.87956 -41.552177 -416.30676 -413.2507 -19.172886 440.55887 -336.76328 -200.58018 137.26714 874.68658 -90.855347 -734.55383 -213.33655 -125.39677 -99.882858 318.80911 221.00336 690.4798 -0.85567158 -96.203972 6.0657582 -243.05194 168.32532 -121.44352 120.24697 23.174679 210.17384 33.349354 -63.048496 18.09284 -35.301979 -11.535688 -31.667852 15.000328 -113.88799 74.830536 109.27579 27.164928 -74.513084 -3.2278686 11.949008 9.9357672 -41.260334 6.471858 -22.192596 26.975023 -10.572814 -27.905085 -31.231674 -10.168595 -1.7306234 6.5624366 -8.5486145 2.1596525 13.760668 8.5980358 7.8765526 19.937414 -0.76644838 4.5632339 -14.748725 16.365587 -73.45446 4.126595 15.233399 -29.534067 33.2868 -107.16384 
yfhsie_1.jpg 80 1 162.16113 118.1467 536.31836 -8.5464878 291.19962 260.98041 -508.62793 -82.896004 -433.71307 -798.14325 -469.79623 -850.3327 -45.948681 412.16534 -392.74454 -562.52167 -442.88229 162.26001 -623.99103 185.82971 33.352459 201.45677 -6.5515809 6.8277354 18.697134 -35.74028 76.995567 11.924923 -85.62278 -39.83242 -79.721588 -219.65918 157.73625 -40.149517 19.888317 -216.09654 27.976789 131.84134 -356.31839 -29.157925 -158.59273 59.483387 -117.6041 41.466244 -58.592808 -185.47643 -163.59727 435.01453 18.053268 55.684078 301.60434 201.3557 67.733635 -34.512215 47.12392 100.75742 216.70261 18.753355 39.092571 -38.670147 -41.667751 -6.7637906 7.8525696 25.255688 15.564395 6.9299068 11.556363 4.0760899 -0.093534105 11.287631 -0.015097753 4.4872561 -14.917624 17.228632 -75.894386 4.5971236 15.306046 -29.80863 33.254772 -18.616692 
yfhsie_2.jpg 80 1 212.69792 111.31283 657.00946 -33.831661 358.39569 186.35699 -463.56375 -5.2181334 -356.12811 -965.50262 -462.44061 -944.81012 3.2243445 290.0242 -347.87051 -545.48779 -479.63855 126.43405 -833.98102 139.02728 60.523048 177.19173 58.263119 0.85488337 64.482422 -71.111885 22.008011 5.1119952 10.611194 -39.292297 -32.24765 -13.8459 97.986588 45.468021 -60.484795 -47.868469 -17.309193 104.23954 -179.81036 -83.913635 17.853369 -7.6487393 -108.31188 13.896266 13.565459 -89.94622 6.4233451 14.216466 -7.7087469 90.67115 -64.321159 -34.934334 39.030636 219.97554 -27.330769 -137.53313 -424.28989 22.150034 -74.528076 -40.437351 -8.4222345 -32.700699 14.321071 150.46725 -16.305178 13.318647 28.845331 -5.2027121 15.329264 15.764898 -7.5369182 8.9608307 -15.931136 9.0345068 -74.537628 3.8525255 16.088753 -30.124813 33.157917 -102.11755 
yfhsie_3.jpg 80 1 192.24347 79.843079 589.40112 -29.44636 327.8031 167.56087 -496.35947 -53.871895 -350.56357 -994.48743 -461.60791 -945.87378 -42.415668 263.11441 -321.21945 -441.53571 -425.44547 130.52562 -786.28937 130.10283 67.656914 103.80432 -11.240308 -7.6228428 61.055386 -54.853966 9.1826334 38.277046 3.9011674 -1.3746014 -10.537737 67.402351 6.3765221 55.290062 -45.897331 87.51973 62.798908 -46.089848 55.458534 52.253597 49.414085 1.1935296 45.471447 9.823595 -5.6163425 33.28289 -40.58091 71.989517 38.710297 -21.558424 -88.369148 -12.312702 7.8917594 1.3942944 -12.643105 -20.446823 -109.31201 32.54583 -87.538795 9.5590143 -47.374199 44.462406 4.1595654 -334.84628 -22.931473 -23.354931 -29.481998 53.071579 18.726553 21.228758 -5.6024127 -1.8384001 -16.352203 15.559701 -72.19915 3.2683628 14.892198 -29.157257 33.100109 -110.2298 
yfhsie_4.jpg 80 1 211.84941 103.26274 669.71814 -30.638424 404.48782 199.75131 -537.22278 -55.838028 -388.01974 -1013.1801 -510.0394 -976.79401 -18.474321 311.38107 -326.98059 -540.96466 -507.96689 207.62668 -854.82611 156.66937 93.9254 149.83794 -16.511414 -37.88504 50.974964 -39.458679 13.085298 44.19936 -0.17536154 -15.778287 -2.782732 -10.443897 15.432999 31.327099 -96.149956 -13.422648 -14.725602 60.6096 -69.46907 -16.565348 -35.459003 11.824618 -35.399712 8.5685978 91.846634 27.758278 7.5539508 -67.768036 20.25318 -25.28783 -473.02844 -311.08496 -126.94346 -243.66733 -54.364403 60.663502 204.16368 -5.6774688 63.047447 -33.312141 -17.398417 19.345472 1.9358872 83.376579 8.4517889 8.4098997 20.63662 0.64041281 7.3448238 24.441975 2.4331675 6.2253656 -12.221055 17.174398 -74.675995 4.2458315 15.277477 -29.566511 33.196316 -150.75807 
yfhsie_5.jpg 80 1 176.1163 70.099205 540.03217 -52.083115 491.25699 -5.6044779 -542.3255 -140.23283 -284.82962 -936.22815 -282.27188 -900.97223 -54.355747 223.39397 -220.4724 -195.54579 -259.92026 121.32695 -697.23267 -13.979398 86.756439 -130.71632 -43.799335 -36.404823 93.568634 -77.494865 61.040413 42.784271 21.635885 59.099277 49.819069 287.74698 -164.78926 119.57618 -31.088017 387.08282 182.91093 -408.31149 542.51117 228.37334 177.18231 38.821026 313.32123 23.108572 -13.583884 220.79581 -136.21466 89.960609 59.887871 -169.96631 126.53278 102.71597 43.385345 27.145399 56.791542 48.232368 44.410397 56.982998 9.1554546 -34.069004 -28.496607 -43.810341 -4.8351712 111.88503 2.0372858 2.7388415 22.649666 0.55988473 10.288693 16.152849 -5.0101552 3.7389627 -18.533449 21.260128 -75.398621 5.0361505 15.848794 -29.829422 33.218739 -66.504524 
zh2_frown.jpg 80 1 -5752.3291 1942.7433 424.60507 -1726.0992 -50.65086 828.18463 -691.90295 -1481.959 -0.28572503 400.92099 896.74817 -319.61325 -322.58426 629.16809 -69.84539 -1258.989 -261.12802 -1332.8273 -604.82031 105.19971 127.67732 313.33069 -350.00159 -109.89639 258.70355 83.351059 14.112923 -189.89893 -46.197266 -5.3372445 163.72942 40.968296 -79.132072 148.75581 -11.719061 117.80033 35.315327 -32.325905 -43.43243 33.115105 47.747074 45.32188 2.8318412 64.406372 54.961918 -10.638456 -36.49675 70.782959 30.974495 17.215176 -39.541294 -22.137934 0.17057163 2.6484525 -25.270472 12.957708 -4.4257026 19.940052 -7.5784764 -30.196795 -30.487696 -0.59899604 7.353972 5.3651037 -1.2202406 1.5592047 8.7090454 12.534676 11.080581 15.905274 -3.8023441 4.7623558 -15.304876 15.94876 -74.147949 4.1843696 15.316754 -29.752825 33.331837 -91.515724 
zh2_neutral.jpg 80 1 -3986.7646 -230.19617 -623.32843 -834.41492 1068.3906 359.92496 21.996731 1342.4922 -635.47455 148.70032 290.0611 -470.20148 -144.03572 589.2923 -110.71436 119.66754 -667.80731 38.887283 -704.55743 360.11066 327.62015 139.28795 122.04812 -148.34387 89.485313 694.43451 -32.830765 -299.60373 -327.40625 -182.65959 74.770844 -276.29471 -288.06409 -282.07669 73.287209 -36.254471 -300.96393 -335.59033 150.05656 -230.49059 -20.611794 17.347925 -60.27457 84.434792 59.508839 -18.034515 -161.11304 188.64391 -205.30496 -158.60561 -106.61498 1.5062768 -11.998766 -18.099808 29.997324 -28.334631 -42.328018 7.8832607 -27.306423 -15.757721 -27.118958 -7.9473495 8.9843893 3.0779214 -3.8537605 -4.2015038 13.701474 9.8065605 10.120667 21.384724 -3.4733174 4.7725983 -15.475567 15.545655 -74.319359 4.2027903 15.264271 -29.852488 33.277256 -30.708307 
zh2_smile.jpg 80 1 -4463.7646 294.56537 -646.58356 -1772.87 797.50623 974.15454 -375.57953 863.40833 -388.38449 -111.84632 651.95734 -330.7616 245.50098 229.27979 -636.81732 -264.52014 -287.81485 435.98517 -367.19839 -72.173904 51.647148 -248.76852 -82.840607 148.01584 320.78024 55.721951 158.69879 142.91464 296.32581 123.41583 -380.11218 61.158012 330.31641 515.05688 -179.8264 -19.237755 21.214197 94.829674 -214.19461 242.18352 320.88538 -198.0009 101.80154 107.84997 -32.188869 -65.287834 -117.38968 104.37476 -350.48193 -176.38551 -51.178337 -21.676489 -4.5519466 -53.188557 5.2498455 4.9676352 -22.294819 2.7711058 -11.375374 -34.962749 -21.232206 5.5298395 5.6232805 6.2131729 -8.7395248 -0.50899011 11.282545 12.951733 10.446917 16.598623 -4.3697133 4.3021536 -14.772785 15.082313 -74.796623 4.0804529 15.446294 -29.811722 33.321289 -177.07504 
zh2_surprise.jpg 80 1 -4287.7402 126.43394 -618.92505 -1929.777 844.96252 792.52521 -139.36514 1180.394 -617.46539 -20.305338 539.11621 -559.60999 -26.835926 384.6344 -469.36142 -327.94485 -295.70416 389.52426 -466.80972 500.70728 139.26755 -279.86398 279.39627 283.85574 208.60016 290.82556 15.938957 -110.17139 187.91612 -94.220978 77.885841 264.44104 200.22266 -112.61214 -201.85272 227.658 44.759975 -31.112856 -120.41548 189.92325 -151.79077 130.81099 -34.176876 -173.28293 3.9682217 42.629757 12.969088 24.987658 549.22809 198.07268 -38.120544 -8.8732443 33.687656 27.209887 -34.191502 23.220324 9.2261486 18.811024 1.6795447 -39.704903 -33.487961 -2.8106296 -0.29647079 6.9015164 0.11381446 5.6434617 4.970613 12.289157 12.575859 16.066084 -2.7073791 4.5158768 -16.987993 17.21965 -74.630028 4.1720533 15.337476 -29.773729 33.287441 -161.55074 
zh2_tongue.jpg 80 1 -3075.5935 9.0849829 -511.56308 -1106.119 1025.0406 -277.19101 353.31912 812.84235 -1305.5215 -97.978073 -366.61282 -477.85251 -718.01349 1185.4424 787.43311 -837.2049 -5.3252316 120.21725 -391.63977 -86.607765 598.3252 -377.92746 -29.825871 5.6862106 -714.92859 -451.05978 -130.08839 -189.11707 -64.845413 120.36019 134.8862 -408.28259 -91.32061 222.8671 -130.29308 -54.956955 121.44675 132.6577 54.230598 242.35519 0.89922392 76.256989 90.000877 -3.548444 -1.8222725 -3.0250552 -34.957928 61.437595 -6.9751492 3.605711 -40.09967 -34.080677 -7.9491158 12.418237 -36.483185 -3.5304017 -24.346653 16.686171 -13.949707 -30.761509 -36.162052 7.0210514 5.8958778 5.3814573 -1.4542657 2.8934789 12.59986 14.533731 9.6030722 16.200247 -3.3999336 4.8882284 -16.132215 16.05419 -74.482704 4.3725958 15.330535 -29.681746 33.248768 -19.844725 
zh_frown.jpg 80 1 -2872.571 -395.9584 -540.11664 -221.55617 1227.6993 -713.76172 767.57251 126.67149 -1262.8014 165.45422 -22.390314 -545.7713 -899.03033 1100.6248 1040.6322 -473.95557 -278.46909 288.41214 -572.69135 -73.59906 -717.21759 450.2897 133.79398 -51.222271 413.70865 -39.237473 -191.80186 392.96365 215.02544 129.3634 -6.9437518 417.5607 140.52232 56.142662 85.741997 299.79901 -116.89265 -10.526648 -98.177345 -222.51276 -0.025736246 -105.08563 -30.829073 96.207031 23.297546 -41.179695 -103.14464 90.705597 8.5772305 -0.81562108 -34.957603 -7.5486498 0.057946622 -13.814669 13.456261 7.5032682 6.139205 25.702499 -5.1271234 -31.77598 -16.817244 -3.0218756 1.5765413 2.2525463 -0.1706273 -1.8024485 11.317982 8.2047558 10.173991 18.642027 -1.6998705 5.3918195 -14.720201 14.902546 -74.899055 4.1430044 15.667403 -29.700283 33.232208 -138.82274 
zh_neutral.jpg 80 1 -3823.7329 -292.14017 -643.30164 -133.47247 1565.2351 142.04886 -64.325676 841.00665 -516.80212 2.3851669 414.94601 -215.68532 -60.228916 631.43512 -464.95734 489.54828 -1012.6794 -128.3774 -596.41345 -59.551788 85.442596 74.959015 -418.7182 -189.74284 284.34317 -482.64688 218.44786 258.70609 -289.0672 -320.52505 -21.945206 90.220345 -277.77448 303.40494 247.52789 -56.679482 578.25092 3.5099483 -84.498718 -184.52765 72.65715 302.49405 -11.440886 -7.2372894 -21.553932 -22.265871 51.12965 15.117517 38.104191 142.09476 -21.278984 -36.192593 -34.686062 -2.0976758 -25.681641 27.818632 -8.7022495 37.620178 4.4660759 -28.447418 -32.105835 3.9816475 5.230803 1.8258022 6.2169814 10.651287 7.1836176 12.66212 12.039191 14.129569 -4.1795182 4.4970202 -16.171345 16.352745 -74.033401 4.2731705 15.390833 -29.765596 33.278961 -81.954704 
zh_smile.jpg 80 1 -5901.6235 2046.8348 662.48181 -873.57568 -5.1831775 793.72583 -679.29895 -404.52872 289.74454 158.57069 142.21941 -687.45428 115.55164 437.45792 90.6222 -227.69049 -541.67108 1017.3551 -391.32016 -323.68658 -159.21611 91.215027 260.30777 576.76593 86.225998 -126.68719 -121.51812 -281.16681 273.61514 11.801876 482.21967 -74.217247 69.580688 370.14917 147.98547 -192.84285 251.57928 -88.629646 344.0918 -290.85904 -240.70917 72.886841 -145.15182 -16.321407 0.34342068 5.6520181 -126.42921 157.38631 -53.665211 9.8592005 -55.701263 -67.415062 -21.395847 12.366478 -1.6627446 15.59737 -23.498167 26.333809 -3.6760724 -30.505642 -20.642433 -5.1143036 5.1476626 -1.5118612 -4.0529079 -1.0273813 8.9043856 9.8415289 7.6280732 17.054176 -3.4451227 2.7569437 -14.945324 15.500118 -74.402504 4.7272654 15.205473 -29.803598 33.330097 -58.813988 
zh_surprise.jpg 80 1 -5415.2397 1485.8939 657.11603 1071.2867 400.13559 149.25046 -561.00696 -308.29675 -42.524178 508.59476 -24.196566 -544.53876 -39.008114 641.87128 370.08588 846.96252 -878.6438 469.71533 -702.44733 -70.861168 517.96692 358.53677 -382.23798 -431.57275 113.7202 69.531525 111.25066 -69.496956 300.31314 94.276192 531.86444 -31.684532 150.69499 13.117379 -329.14746 209.34352 -114.0675 148.80191 -197.26999 391.30231 10.444237 7.3024049 95.299393 49.390358 -36.698715 -84.687851 -60.135738 112.2441 69.132874 -22.195238 -62.115086 -9.0373316 45.579411 -10.87024 -2.5649636 11.156179 -29.791388 6.6707749 -8.2750149 -23.376598 -37.779449 -2.7384706 3.2160645 7.5883956 -5.795712 0.36207983 9.0517006 11.097747 11.679565 17.081118 -0.34766304 4.8369241 -14.069625 16.448679 -74.569839 3.8767083 15.508622 -29.641245 33.266037 -230.01993 
zh_tongue.jpg 80 1 -5826.3403 1878.8585 448.38919 -1211.2283 117.64375 829.69299 -791.27411 -905.53876 370.23892 176.89624 390.48468 -664.18286 -123.14304 619.83063 471.80536 -88.346794 -451.3931 744.47498 -527.92249 -191.22937 97.655273 -100.30881 217.41608 36.04863 -418.50177 -198.37228 436.26025 488.17291 -703.08472 -126.75693 -481.47165 241.246 29.844772 -345.50983 -83.385666 10.466934 -72.296616 -21.569357 -44.071545 -8.1730356 73.609024 2.6968987 74.7873 -7.6296988 97.87986 -23.500881 -20.822996 112.04491 57.021687 -25.068035 -95.734291 17.817606 -7.2963109 10.142487 -9.2930965 -1.7134554 -24.117373 20.943718 -8.6150093 -25.374771 -28.251427 -1.3922527 2.7025876 2.2820487 1.3957309 5.1865964 11.604207 9.1764059 10.736104 17.846947 -3.0682278 5.904304 -17.473679 16.084759 -74.661118 4.1030831 15.431873 -29.691849 33.327633 -68.036446 
